booster[0]:
0:[f1<0.5] yes=1,no=2,missing=1
	1:[f2<0.5] yes=3,no=4,missing=3
		3:leaf=-0.075
		4:[f3<0.5] yes=7,no=8,missing=7
			7:leaf=0.075
			8:leaf=-0.075
	2:[f2<0.5] yes=5,no=6,missing=5
		5:leaf=0.075
		6:[f3<0.5] yes=9,no=10,missing=9
			9:leaf=0.075
			10:leaf=-0.075
booster[1]:
0:[f1<0.5] yes=1,no=2,missing=1
	1:[f2<0.5] yes=3,no=4,missing=3
		3:leaf=-0.06375
		4:[f3<0.5] yes=7,no=8,missing=7
			7:leaf=0.06375
			8:leaf=-0.06375
	2:[f2<0.5] yes=5,no=6,missing=5
		5:leaf=0.06375
		6:[f3<0.5] yes=9,no=10,missing=9
			9:leaf=0.06375
			10:leaf=-0.06375
booster[2]:
0:[f1<0.5] yes=1,no=2,missing=1
	1:[f2<0.5] yes=3,no=4,missing=3
		3:leaf=-0.0541875
		4:[f3<0.5] yes=7,no=8,missing=7
			7:leaf=0.0541875
			8:leaf=-0.0541875
	2:[f2<0.5] yes=5,no=6,missing=5
		5:leaf=0.0541875
		6:[f3<0.5] yes=9,no=10,missing=9
			9:leaf=0.0541875
			10:leaf=-0.0541875
booster[3]:
0:[f1<0.5] yes=1,no=2,missing=1
	1:[f2<0.5] yes=3,no=4,missing=3
		3:leaf=-0.0460594
		4:[f3<0.5] yes=7,no=8,missing=7
			7:leaf=0.0460594
			8:leaf=-0.0460594
	2:[f2<0.5] yes=5,no=6,missing=5
		5:leaf=0.0460594
		6:[f3<0.5] yes=9,no=10,missing=9
			9:leaf=0.0460594
			10:leaf=-0.0460594
booster[4]:
0:[f1<0.5] yes=1,no=2,missing=1
	1:[f2<0.5] yes=3,no=4,missing=3
		3:leaf=-0.0391505
		4:[f3<0.5] yes=7,no=8,missing=7
			7:leaf=0.0391505
			8:leaf=-0.0391505
	2:[f2<0.5] yes=5,no=6,missing=5
		5:leaf=0.0391505
		6:[f3<0.5] yes=9,no=10,missing=9
			9:leaf=0.0391505
			10:leaf=-0.0391505
booster[5]:
0:[f1<0.5] yes=1,no=2,missing=1
	1:[f2<0.5] yes=3,no=4,missing=3
		3:leaf=-0.0332779
		4:[f3<0.5] yes=7,no=8,missing=7
			7:leaf=0.0332779
			8:leaf=-0.0332779
	2:[f2<0.5] yes=5,no=6,missing=5
		5:leaf=0.0332779
		6:[f3<0.5] yes=9,no=10,missing=9
			9:leaf=0.0332779
			10:leaf=-0.0332779
booster[6]:
0:[f1<0.5] yes=1,no=2,missing=1
	1:[f2<0.5] yes=3,no=4,missing=3
		3:leaf=-0.0282862
		4:[f3<0.5] yes=7,no=8,missing=7
			7:leaf=0.0282862
			8:leaf=-0.0282862
	2:[f2<0.5] yes=5,no=6,missing=5
		5:leaf=0.0282862
		6:[f3<0.5] yes=9,no=10,missing=9
			9:leaf=0.0282862
			10:leaf=-0.0282862
booster[7]:
0:[f1<0.5] yes=1,no=2,missing=1
	1:[f2<0.5] yes=3,no=4,missing=3
		3:leaf=-0.0240433
		4:[f3<0.5] yes=7,no=8,missing=7
			7:leaf=0.0240433
			8:leaf=-0.0240433
	2:[f2<0.5] yes=5,no=6,missing=5
		5:leaf=0.0240433
		6:[f3<0.5] yes=9,no=10,missing=9
			9:leaf=0.0240433
			10:leaf=-0.0240433
booster[8]:
0:[f1<0.5] yes=1,no=2,missing=1
	1:[f2<0.5] yes=3,no=4,missing=3
		3:leaf=-0.0204368
		4:[f3<0.5] yes=7,no=8,missing=7
			7:leaf=0.0204368
			8:leaf=-0.0204368
	2:[f2<0.5] yes=5,no=6,missing=5
		5:leaf=0.0204368
		6:[f3<0.5] yes=9,no=10,missing=9
			9:leaf=0.0204368
			10:leaf=-0.0204368
booster[9]:
0:[f1<0.5] yes=1,no=2,missing=1
	1:[f2<0.5] yes=3,no=4,missing=3
		3:leaf=-0.0173713
		4:[f3<0.5] yes=7,no=8,missing=7
			7:leaf=0.0173713
			8:leaf=-0.0173713
	2:[f2<0.5] yes=5,no=6,missing=5
		5:leaf=0.0173713
		6:[f3<0.5] yes=9,no=10,missing=9
			9:leaf=0.0173713
			10:leaf=-0.0173713
booster[10]:
0:[f1<0.5] yes=1,no=2,missing=1
	1:[f2<0.5] yes=3,no=4,missing=3
		3:leaf=-0.0147656
		4:[f3<0.5] yes=7,no=8,missing=7
			7:leaf=0.0147656
			8:leaf=-0.0147656
	2:[f2<0.5] yes=5,no=6,missing=5
		5:leaf=0.0147656
		6:[f3<0.5] yes=9,no=10,missing=9
			9:leaf=0.0147656
			10:leaf=-0.0147656
booster[11]:
0:[f1<0.5] yes=1,no=2,missing=1
	1:[f2<0.5] yes=3,no=4,missing=3
		3:leaf=-0.0125507
		4:[f3<0.5] yes=7,no=8,missing=7
			7:leaf=0.0125507
			8:leaf=-0.0125507
	2:[f2<0.5] yes=5,no=6,missing=5
		5:leaf=0.0125507
		6:[f3<0.5] yes=9,no=10,missing=9
			9:leaf=0.0125507
			10:leaf=-0.0125507
booster[12]:
0:[f1<0.5] yes=1,no=2,missing=1
	1:[f2<0.5] yes=3,no=4,missing=3
		3:leaf=-0.0106681
		4:[f3<0.5] yes=7,no=8,missing=7
			7:leaf=0.0106681
			8:leaf=-0.0106681
	2:[f2<0.5] yes=5,no=6,missing=5
		5:leaf=0.0106681
		6:[f3<0.5] yes=9,no=10,missing=9
			9:leaf=0.0106681
			10:leaf=-0.0106681
booster[13]:
0:[f1<0.5] yes=1,no=2,missing=1
	1:[f2<0.5] yes=3,no=4,missing=3
		3:leaf=-0.00906791
		4:[f3<0.5] yes=7,no=8,missing=7
			7:leaf=0.00906791
			8:leaf=-0.00906791
	2:[f2<0.5] yes=5,no=6,missing=5
		5:leaf=0.00906791
		6:[f3<0.5] yes=9,no=10,missing=9
			9:leaf=0.00906791
			10:leaf=-0.00906791
booster[14]:
0:[f1<0.5] yes=1,no=2,missing=1
	1:[f2<0.5] yes=3,no=4,missing=3
		3:leaf=-0.00770773
		4:[f3<0.5] yes=7,no=8,missing=7
			7:leaf=0.00770772
			8:leaf=-0.00770773
	2:[f2<0.5] yes=5,no=6,missing=5
		5:leaf=0.00770772
		6:[f3<0.5] yes=9,no=10,missing=9
			9:leaf=0.00770772
			10:leaf=-0.00770773
booster[15]:
0:[f1<0.5] yes=1,no=2,missing=1
	1:[f2<0.5] yes=3,no=4,missing=3
		3:leaf=-0.00655157
		4:[f3<0.5] yes=7,no=8,missing=7
			7:leaf=0.00655156
			8:leaf=-0.00655157
	2:[f2<0.5] yes=5,no=6,missing=5
		5:leaf=0.00655156
		6:[f3<0.5] yes=9,no=10,missing=9
			9:leaf=0.00655156
			10:leaf=-0.00655157
booster[16]:
0:[f1<0.5] yes=1,no=2,missing=1
	1:[f2<0.5] yes=3,no=4,missing=3
		3:leaf=-0.00556883
		4:[f3<0.5] yes=7,no=8,missing=7
			7:leaf=0.00556883
			8:leaf=-0.00556883
	2:[f2<0.5] yes=5,no=6,missing=5
		5:leaf=0.00556883
		6:[f3<0.5] yes=9,no=10,missing=9
			9:leaf=0.00556883
			10:leaf=-0.00556883
booster[17]:
0:[f1<0.5] yes=1,no=2,missing=1
	1:[f2<0.5] yes=3,no=4,missing=3
		3:leaf=-0.00473351
		4:[f3<0.5] yes=7,no=8,missing=7
			7:leaf=0.00473351
			8:leaf=-0.00473351
	2:[f2<0.5] yes=5,no=6,missing=5
		5:leaf=0.00473351
		6:[f3<0.5] yes=9,no=10,missing=9
			9:leaf=0.00473351
			10:leaf=-0.00473351
booster[18]:
0:[f1<0.5] yes=1,no=2,missing=1
	1:[f2<0.5] yes=3,no=4,missing=3
		3:leaf=-0.00402348
		4:[f3<0.5] yes=7,no=8,missing=7
			7:leaf=0.00402348
			8:leaf=-0.00402348
	2:[f2<0.5] yes=5,no=6,missing=5
		5:leaf=0.00402348
		6:[f3<0.5] yes=9,no=10,missing=9
			9:leaf=0.00402348
			10:leaf=-0.00402348
booster[19]:
0:[f1<0.5] yes=1,no=2,missing=1
	1:[f2<0.5] yes=3,no=4,missing=3
		3:leaf=-0.00341996
		4:[f3<0.5] yes=7,no=8,missing=7
			7:leaf=0.00341996
			8:leaf=-0.00341996
	2:[f2<0.5] yes=5,no=6,missing=5
		5:leaf=0.00341996
		6:[f3<0.5] yes=9,no=10,missing=9
			9:leaf=0.00341996
			10:leaf=-0.00341996
